<?xml version="1.0"?>
<opencv_storage>
<cascade>
  <stageType>BOOST</stageType>
  <featureType>HAAR</featureType>
  <height>50</height>
  <width>90</width>
  <stageParams>
    <boostType>GAB</boostType>
    <minHitRate>9.9500000476837158e-001</minHitRate>
    <maxFalseAlarm>5.0000000000000000e-001</maxFalseAlarm>
    <weightTrimRate>9.4999999999999996e-001</weightTrimRate>
    <maxDepth>1</maxDepth>
    <maxWeakCount>100</maxWeakCount></stageParams>
  <featureParams>
    <maxCatCount>0</maxCatCount>
    <featSize>1</featSize>
    <mode>ALL</mode></featureParams>
  <stageNum>16</stageNum>
  <stages>
    <!-- stage 0 -->
    <_>
      <maxWeakCount>2</maxWeakCount>
      <stageThreshold>1.2107842415571213e-001</stageThreshold>
      <weakClassifiers>
        <_>
          <internalNodes>
            0 -1 6 -1.3945683604106307e-003</internalNodes>
          <leafValues>
            1. -6.7346936464309692e-001</leafValues></_>
        <_>
          <internalNodes>
            0 -1 15 1.4621288573835045e-004</internalNodes>
          <leafValues>
            7.9454779624938965e-001 -8.4766334295272827e-001</leafValues></_></weakClassifiers></_>
    <!-- stage 1 -->
    <_>
      <maxWeakCount>2</maxWeakCount>
      <stageThreshold>1.1641402542591095e-001</stageThreshold>
      <weakClassifiers>
        <_>
          <internalNodes>
            0 -1 27 -6.3875056803226471e-003</internalNodes>
          <leafValues>
            9.4117647409439087e-001 -6.3265305757522583e-001</leafValues></_>
        <_>
          <internalNodes>
            0 -1 22 5.5790590122342110e-003</internalNodes>
          <leafValues>
            -6.7477339506149292e-001 7.4906706809997559e-001</leafValues></_></weakClassifiers></_>
    <!-- stage 2 -->
    <_>
      <maxWeakCount>2</maxWeakCount>
      <stageThreshold>1.3930597901344299e-001</stageThreshold>
      <weakClassifiers>
        <_>
          <internalNodes>
            0 -1 5 -2.1586930379271507e-003</internalNodes>
          <leafValues>
            7.9487180709838867e-001 -6.8181818723678589e-001</leafValues></_>
        <_>
          <internalNodes>
            0 -1 1 7.0684789679944515e-003</internalNodes>
          <leafValues>
            -6.5556579828262329e-001 8.8215440511703491e-001</leafValues></_></weakClassifiers></_>
    <!-- stage 3 -->
    <_>
      <maxWeakCount>2</maxWeakCount>
      <stageThreshold>6.5763935446739197e-002</stageThreshold>
      <weakClassifiers>
        <_>
          <internalNodes>
            0 -1 34 -2.7382085099816322e-003</internalNodes>
          <leafValues>
            1. -5.1851850748062134e-001</leafValues></_>
        <_>
          <internalNodes>
            0 -1 4 -2.2990364581346512e-002</internalNodes>
          <leafValues>
            -9.1247016191482544e-001 5.8428245782852173e-001</leafValues></_></weakClassifiers></_>
    <!-- stage 4 -->
    <_>
      <maxWeakCount>2</maxWeakCount>
      <stageThreshold>4.5405153185129166e-002</stageThreshold>
      <weakClassifiers>
        <_>
          <internalNodes>
            0 -1 35 4.8599569126963615e-003</internalNodes>
          <leafValues>
            -7.6190477609634399e-001 8.0487805604934692e-001</leafValues></_>
        <_>
          <internalNodes>
            0 -1 19 2.4679017951712012e-004</internalNodes>
          <leafValues>
            -6.3309192657470703e-001 8.0730992555618286e-001</leafValues></_></weakClassifiers></_>
    <!-- stage 5 -->
    <_>
      <maxWeakCount>2</maxWeakCount>
      <stageThreshold>3.2472822815179825e-002</stageThreshold>
      <weakClassifiers>
        <_>
          <internalNodes>
            0 -1 12 -3.2183525618165731e-003</internalNodes>
          <leafValues>
            7.8947371244430542e-001 -6.4444446563720703e-001</leafValues></_>
        <_>
          <internalNodes>
            0 -1 26 -2.9634783277288079e-004</internalNodes>
          <leafValues>
            6.7940980195999146e-001 -7.5700086355209351e-001</leafValues></_></weakClassifiers></_>
    <!-- stage 6 -->
    <_>
      <maxWeakCount>2</maxWeakCount>
      <stageThreshold>1.4458158612251282e-001</stageThreshold>
      <weakClassifiers>
        <_>
          <internalNodes>
            0 -1 28 -3.5873062908649445e-002</internalNodes>
          <leafValues>
            9.2857140302658081e-001 -4.5454546809196472e-001</leafValues></_>
        <_>
          <internalNodes>
            0 -1 36 -8.9991721324622631e-005</internalNodes>
          <leafValues>
            7.2261130809783936e-001 -7.8398984670639038e-001</leafValues></_></weakClassifiers></_>
    <!-- stage 7 -->
    <_>
      <maxWeakCount>3</maxWeakCount>
      <stageThreshold>4.2700567841529846e-001</stageThreshold>
      <weakClassifiers>
        <_>
          <internalNodes>
            0 -1 7 7.8843031078577042e-003</internalNodes>
          <leafValues>
            -8.1818181276321411e-001 5.6000000238418579e-001</leafValues></_>
        <_>
          <internalNodes>
            0 -1 9 2.1974887931719422e-004</internalNodes>
          <leafValues>
            6.4731162786483765e-001 -8.4265947341918945e-001</leafValues></_>
        <_>
          <internalNodes>
            0 -1 32 -3.2657352858223021e-004</internalNodes>
          <leafValues>
            7.0966511964797974e-001 -7.5913590192794800e-001</leafValues></_></weakClassifiers></_>
    <!-- stage 8 -->
    <_>
      <maxWeakCount>2</maxWeakCount>
      <stageThreshold>-7.0712077431380749e-003</stageThreshold>
      <weakClassifiers>
        <_>
          <internalNodes>
            0 -1 10 -1.2239888310432434e-003</internalNodes>
          <leafValues>
            8.7096774578094482e-001 -5.0000000000000000e-001</leafValues></_>
        <_>
          <internalNodes>
            0 -1 33 -1.4522897254209965e-004</internalNodes>
          <leafValues>
            -8.7803894281387329e-001 5.6062871217727661e-001</leafValues></_></weakClassifiers></_>
    <!-- stage 9 -->
    <_>
      <maxWeakCount>2</maxWeakCount>
      <stageThreshold>7.0469543337821960e-002</stageThreshold>
      <weakClassifiers>
        <_>
          <internalNodes>
            0 -1 24 -5.9985311236232519e-004</internalNodes>
          <leafValues>
            8.6666667461395264e-001 -4.7169810533523560e-001</leafValues></_>
        <_>
          <internalNodes>
            0 -1 18 4.6697110519744456e-005</internalNodes>
          <leafValues>
            6.4391553401947021e-001 -7.9619711637496948e-001</leafValues></_></weakClassifiers></_>
    <!-- stage 10 -->
    <_>
      <maxWeakCount>2</maxWeakCount>
      <stageThreshold>-1.7562849819660187e-001</stageThreshold>
      <weakClassifiers>
        <_>
          <internalNodes>
            0 -1 11 -4.1996629443019629e-004</internalNodes>
          <leafValues>
            6.5853661298751831e-001 -6.1904764175415039e-001</leafValues></_>
        <_>
          <internalNodes>
            0 -1 23 1.2478578719310462e-004</internalNodes>
          <leafValues>
            5.4565155506134033e-001 -8.3416509628295898e-001</leafValues></_></weakClassifiers></_>
    <!-- stage 11 -->
    <_>
      <maxWeakCount>3</maxWeakCount>
      <stageThreshold>-2.0998875796794891e-001</stageThreshold>
      <weakClassifiers>
        <_>
          <internalNodes>
            0 -1 3 -6.9432891905307770e-003</internalNodes>
          <leafValues>
            8.7500000000000000e-001 -5.2941179275512695e-001</leafValues></_>
        <_>
          <internalNodes>
            0 -1 30 -6.5774505492299795e-004</internalNodes>
          <leafValues>
            8.6113166809082031e-001 -4.7721186280250549e-001</leafValues></_>
        <_>
          <internalNodes>
            0 -1 0 1.6775755211710930e-003</internalNodes>
          <leafValues>
            -5.4170864820480347e-001 8.4265905618667603e-001</leafValues></_></weakClassifiers></_>
    <!-- stage 12 -->
    <_>
      <maxWeakCount>3</maxWeakCount>
      <stageThreshold>-5.0196057558059692e-001</stageThreshold>
      <weakClassifiers>
        <_>
          <internalNodes>
            0 -1 17 -1.2689652794506401e-004</internalNodes>
          <leafValues>
            9.2592591047286987e-001 -4.2857143282890320e-001</leafValues></_>
        <_>
          <internalNodes>
            0 -1 31 7.2973349597305059e-004</internalNodes>
          <leafValues>
            -5.0989395380020142e-001 7.8211438655853271e-001</leafValues></_>
        <_>
          <internalNodes>
            0 -1 29 2.2226371220313013e-004</internalNodes>
          <leafValues>
            5.3620427846908569e-001 -9.1799259185791016e-001</leafValues></_></weakClassifiers></_>
    <!-- stage 13 -->
    <_>
      <maxWeakCount>4</maxWeakCount>
      <stageThreshold>2.6848152279853821e-001</stageThreshold>
      <weakClassifiers>
        <_>
          <internalNodes>
            0 -1 16 7.0203613722696900e-004</internalNodes>
          <leafValues>
            -6.0000002384185791e-001 7.3684209585189819e-001</leafValues></_>
        <_>
          <internalNodes>
            0 -1 14 -6.6135165980085731e-005</internalNodes>
          <leafValues>
            5.5038613080978394e-001 -8.3592903614044189e-001</leafValues></_>
        <_>
          <internalNodes>
            0 -1 13 4.8120096325874329e-003</internalNodes>
          <leafValues>
            -5.1629018783569336e-001 8.7573367357254028e-001</leafValues></_>
        <_>
          <internalNodes>
            0 -1 21 3.6318774800747633e-003</internalNodes>
          <leafValues>
            -5.0245648622512817e-001 9.7874099016189575e-001</leafValues></_></weakClassifiers></_>
    <!-- stage 14 -->
    <_>
      <maxWeakCount>2</maxWeakCount>
      <stageThreshold>-7.7374011278152466e-002</stageThreshold>
      <weakClassifiers>
        <_>
          <internalNodes>
            0 -1 2 -9.2898716684430838e-004</internalNodes>
          <leafValues>
            7.7142858505249023e-001 -5.4166668653488159e-001</leafValues></_>
        <_>
          <internalNodes>
            0 -1 20 1.4427970745600760e-004</internalNodes>
          <leafValues>
            6.1169189214706421e-001 -8.4880256652832031e-001</leafValues></_></weakClassifiers></_>
    <!-- stage 15 -->
    <_>
      <maxWeakCount>2</maxWeakCount>
      <stageThreshold>1.5073622763156891e-001</stageThreshold>
      <weakClassifiers>
        <_>
          <internalNodes>
            0 -1 8 -2.3691993206739426e-002</internalNodes>
          <leafValues>
            8.6666667461395264e-001 -4.7169810533523560e-001</leafValues></_>
        <_>
          <internalNodes>
            0 -1 25 3.7078239984111860e-005</internalNodes>
          <leafValues>
            -7.1593046188354492e-001 6.5964394807815552e-001</leafValues></_></weakClassifiers></_></stages>
  <features>
    <_>
      <rects>
        <_>
          0 15 14 14 -1.</_>
        <_>
          0 15 7 7 2.</_>
        <_>
          7 22 7 7 2.</_></rects>
      <tilted>0</tilted></_>
    <_>
      <rects>
        <_>
          0 25 27 25 -1.</_>
        <_>
          9 25 9 25 3.</_></rects>
      <tilted>0</tilted></_>
    <_>
      <rects>
        <_>
          4 35 10 4 -1.</_>
        <_>
          4 35 5 4 2.</_></rects>
      <tilted>1</tilted></_>
    <_>
      <rects>
        <_>
          5 0 28 20 -1.</_>
        <_>
          5 0 14 10 2.</_>
        <_>
          19 10 14 10 2.</_></rects>
      <tilted>0</tilted></_>
    <_>
      <rects>
        <_>
          5 29 84 10 -1.</_>
        <_>
          26 29 42 10 2.</_></rects>
      <tilted>0</tilted></_>
    <_>
      <rects>
        <_>
          6 12 22 8 -1.</_>
        <_>
          17 12 11 8 2.</_></rects>
      <tilted>0</tilted></_>
    <_>
      <rects>
        <_>
          13 11 6 17 -1.</_>
        <_>
          16 11 3 17 2.</_></rects>
      <tilted>0</tilted></_>
    <_>
      <rects>
        <_>
          19 14 38 18 -1.</_>
        <_>
          19 23 38 9 2.</_></rects>
      <tilted>0</tilted></_>
    <_>
      <rects>
        <_>
          21 0 21 27 -1.</_>
        <_>
          21 9 21 9 3.</_></rects>
      <tilted>0</tilted></_>
    <_>
      <rects>
        <_>
          22 4 2 4 -1.</_>
        <_>
          22 4 2 2 2.</_></rects>
      <tilted>1</tilted></_>
    <_>
      <rects>
        <_>
          24 22 16 3 -1.</_>
        <_>
          28 22 8 3 2.</_></rects>
      <tilted>0</tilted></_>
    <_>
      <rects>
        <_>
          24 37 36 8 -1.</_>
        <_>
          33 37 18 8 2.</_></rects>
      <tilted>0</tilted></_>
    <_>
      <rects>
        <_>
          26 9 20 30 -1.</_>
        <_>
          26 9 10 15 2.</_>
        <_>
          36 24 10 15 2.</_></rects>
      <tilted>0</tilted></_>
    <_>
      <rects>
        <_>
          28 26 6 24 -1.</_>
        <_>
          28 32 6 12 2.</_></rects>
      <tilted>0</tilted></_>
    <_>
      <rects>
        <_>
          29 0 46 5 -1.</_>
        <_>
          52 0 23 5 2.</_></rects>
      <tilted>0</tilted></_>
    <_>
      <rects>
        <_>
          30 6 8 6 -1.</_>
        <_>
          30 9 8 3 2.</_></rects>
      <tilted>0</tilted></_>
    <_>
      <rects>
        <_>
          30 23 42 1 -1.</_>
        <_>
          51 23 21 1 2.</_></rects>
      <tilted>0</tilted></_>
    <_>
      <rects>
        <_>
          30 39 2 4 -1.</_>
        <_>
          31 39 1 4 2.</_></rects>
      <tilted>0</tilted></_>
    <_>
      <rects>
        <_>
          34 12 1 6 -1.</_>
        <_>
          34 15 1 3 2.</_></rects>
      <tilted>0</tilted></_>
    <_>
      <rects>
        <_>
          34 31 8 6 -1.</_>
        <_>
          36 31 4 6 2.</_></rects>
      <tilted>0</tilted></_>
    <_>
      <rects>
        <_>
          40 49 18 1 -1.</_>
        <_>
          46 49 6 1 3.</_></rects>
      <tilted>0</tilted></_>
    <_>
      <rects>
        <_>
          46 1 6 33 -1.</_>
        <_>
          46 1 3 33 2.</_></rects>
      <tilted>1</tilted></_>
    <_>
      <rects>
        <_>
          50 26 34 21 -1.</_>
        <_>
          50 33 34 7 3.</_></rects>
      <tilted>0</tilted></_>
    <_>
      <rects>
        <_>
          57 0 9 7 -1.</_>
        <_>
          60 0 3 7 3.</_></rects>
      <tilted>0</tilted></_>
    <_>
      <rects>
        <_>
          57 25 6 25 -1.</_>
        <_>
          59 25 2 25 3.</_></rects>
      <tilted>0</tilted></_>
    <_>
      <rects>
        <_>
          58 33 3 4 -1.</_>
        <_>
          59 34 1 4 3.</_></rects>
      <tilted>1</tilted></_>
    <_>
      <rects>
        <_>
          62 1 9 24 -1.</_>
        <_>
          65 1 3 24 3.</_></rects>
      <tilted>0</tilted></_>
    <_>
      <rects>
        <_>
          62 2 22 2 -1.</_>
        <_>
          62 2 11 2 2.</_></rects>
      <tilted>1</tilted></_>
    <_>
      <rects>
        <_>
          63 1 20 16 -1.</_>
        <_>
          63 1 20 8 2.</_></rects>
      <tilted>1</tilted></_>
    <_>
      <rects>
        <_>
          65 1 6 5 -1.</_>
        <_>
          67 3 2 5 3.</_></rects>
      <tilted>1</tilted></_>
    <_>
      <rects>
        <_>
          65 27 6 2 -1.</_>
        <_>
          67 29 2 2 3.</_></rects>
      <tilted>1</tilted></_>
    <_>
      <rects>
        <_>
          68 12 12 34 -1.</_>
        <_>
          71 12 6 34 2.</_></rects>
      <tilted>0</tilted></_>
    <_>
      <rects>
        <_>
          68 29 22 1 -1.</_>
        <_>
          79 29 11 1 2.</_></rects>
      <tilted>0</tilted></_>
    <_>
      <rects>
        <_>
          71 5 6 4 -1.</_>
        <_>
          74 5 3 4 2.</_></rects>
      <tilted>0</tilted></_>
    <_>
      <rects>
        <_>
          73 6 1 20 -1.</_>
        <_>
          73 6 1 10 2.</_></rects>
      <tilted>1</tilted></_>
    <_>
      <rects>
        <_>
          74 2 15 38 -1.</_>
        <_>
          79 2 5 38 3.</_></rects>
      <tilted>0</tilted></_>
    <_>
      <rects>
        <_>
          81 12 8 1 -1.</_>
        <_>
          85 12 4 1 2.</_></rects>
      <tilted>0</tilted></_></features></cascade>
</opencv_storage>
