<?xml version="1.0"?>
<opencv_storage>
<stage15>
  <maxWeakCount>11</maxWeakCount>
  <stageThreshold>-9.3395107984542847e-01</stageThreshold>
  <weakClassifiers>
    <_>
      <internalNodes>
        0 -1 15218829 3.1193480826914310e-03</internalNodes>
      <leafValues>
        -5.9331476688385010e-01 3.6842104792594910e-01</leafValues></_>
    <_>
      <internalNodes>
        0 -1 4490390 4.9417619593441486e-03</internalNodes>
      <leafValues>
        -4.1985493898391724e-01 3.3783799409866333e-01</leafValues></_>
    <_>
      <internalNodes>
        0 -1 7403522 -4.6593289880547673e-05</internalNodes>
      <leafValues>
        3.5556986927986145e-01 -4.1422688961029053e-01</leafValues></_>
    <_>
      <internalNodes>
        0 -1 12350450 9.8236380144953728e-03</internalNodes>
      <leafValues>
        -2.0874114334583282e-01 6.9573873281478882e-01</leafValues></_>
    <_>
      <internalNodes>
        0 -1 8640086 1.0266338940709829e-03</internalNodes>
      <leafValues>
        -4.9085244536399841e-01 3.1987991929054260e-01</leafValues></_>
    <_>
      <internalNodes>
        0 -1 12364077 1.2077013030648232e-02</internalNodes>
      <leafValues>
        -2.2707942128181458e-01 6.3773196935653687e-01</leafValues></_>
    <_>
      <internalNodes>
        0 -1 11635306 -6.5043952781707048e-04</internalNodes>
      <leafValues>
        5.7767319679260254e-01 -2.5168260931968689e-01</leafValues></_>
    <_>
      <internalNodes>
        0 -1 7141900 -9.6292700618505478e-03</internalNodes>
      <leafValues>
        6.9749981164932251e-01 -2.0377092063426971e-01</leafValues></_>
    <_>
      <internalNodes>
        0 -1 15399410 3.4327647881582379e-05</internalNodes>
      <leafValues>
        -3.9328372478485107e-01 4.1296344995498657e-01</leafValues></_>
    <_>
      <internalNodes>
        0 -1 15467276 -2.2771282237954438e-04</internalNodes>
      <leafValues>
        -7.2220194339752197e-01 2.4134472012519836e-01</leafValues></_>
    <_>
      <internalNodes>
        0 -1 11492574 -1.0268127080053091e-03</internalNodes>
      <leafValues>
        5.6254792213439941e-01 -3.4716144204139709e-01</leafValues></_></weakClassifiers></stage15>
</opencv_storage>
