<?xml version="1.0"?>
<opencv_storage>
<stage8>
  <maxWeakCount>6</maxWeakCount>
  <stageThreshold>-9.1686832904815674e-01</stageThreshold>
  <weakClassifiers>
    <_>
      <internalNodes>
        0 -1 15160937 -5.1973713561892509e-03</internalNodes>
      <leafValues>
        6.7567569017410278e-01 -5.7255935668945312e-01</leafValues></_>
    <_>
      <internalNodes>
        0 -1 3597385 2.8249446768313646e-04</internalNodes>
      <leafValues>
        1.4920723438262939e-01 -8.7159031629562378e-01</leafValues></_>
    <_>
      <internalNodes>
        0 -1 4998582 -2.5178337818942964e-04</internalNodes>
      <leafValues>
        -9.1207098960876465e-01 1.8966786563396454e-01</leafValues></_>
    <_>
      <internalNodes>
        0 -1 12890140 1.0921407956629992e-03</internalNodes>
      <leafValues>
        -3.9320763945579529e-01 4.5297649502754211e-01</leafValues></_>
    <_>
      <internalNodes>
        0 -1 9339357 3.2455800101161003e-04</internalNodes>
      <leafValues>
        -3.4322136640548706e-01 5.1380139589309692e-01</leafValues></_>
    <_>
      <internalNodes>
        0 -1 13806991 2.3378891637548804e-04</internalNodes>
      <leafValues>
        2.2815692424774170e-01 -8.0377781391143799e-01</leafValues></_></weakClassifiers></stage8>
</opencv_storage>
