<?xml version="1.0"?>
<opencv_storage>
<stage13>
  <maxWeakCount>6</maxWeakCount>
  <stageThreshold>-6.1703753471374512e-01</stageThreshold>
  <weakClassifiers>
    <_>
      <internalNodes>
        0 -1 4892 1.5473876148462296e-02</internalNodes>
      <leafValues>
        -5.8064514398574829e-01 5.4545456171035767e-01</leafValues></_>
    <_>
      <internalNodes>
        0 -1 6779747 1.2426682747900486e-02</internalNodes>
      <leafValues>
        -7.4365204572677612e-01 3.1880599260330200e-01</leafValues></_>
    <_>
      <internalNodes>
        0 -1 6767042 8.9142566139344126e-05</internalNodes>
      <leafValues>
        1.7683894932270050e-01 -7.5268620252609253e-01</leafValues></_>
    <_>
      <internalNodes>
        0 -1 2211966 -8.8435998186469078e-03</internalNodes>
      <leafValues>
        4.7892868518829346e-01 -3.4410887956619263e-01</leafValues></_>
    <_>
      <internalNodes>
        0 -1 7841286 7.0837698876857758e-03</internalNodes>
      <leafValues>
        -2.3419004678726196e-01 7.5728142261505127e-01</leafValues></_>
    <_>
      <internalNodes>
        0 -1 3479787 -2.7193371206521988e-03</internalNodes>
      <leafValues>
        -6.7786914110183716e-01 2.8568208217620850e-01</leafValues></_></weakClassifiers></stage13>
</opencv_storage>
