<?xml version="1.0"?>
<opencv_storage>
<stage11>
  <maxWeakCount>9</maxWeakCount>
  <stageThreshold>-7.7728140354156494e-01</stageThreshold>
  <weakClassifiers>
    <_>
      <internalNodes>
        0 -1 15325158 -4.3190736323595047e-03</internalNodes>
      <leafValues>
        9.2000001668930054e-01 -5.4987210035324097e-01</leafValues></_>
    <_>
      <internalNodes>
        0 -1 11599559 -5.1275703299324960e-05</internalNodes>
      <leafValues>
        3.0508863925933838e-01 -4.7970879077911377e-01</leafValues></_>
    <_>
      <internalNodes>
        0 -1 6368761 4.9394327215850353e-03</internalNodes>
      <leafValues>
        2.7613937854766846e-01 -5.9585440158843994e-01</leafValues></_>
    <_>
      <internalNodes>
        0 -1 11775259 -2.5215437635779381e-02</internalNodes>
      <leafValues>
        -9.3829822540283203e-01 1.7006728053092957e-01</leafValues></_>
    <_>
      <internalNodes>
        0 -1 11363271 3.7215356715023518e-03</internalNodes>
      <leafValues>
        -2.2867040336132050e-01 7.3277288675308228e-01</leafValues></_>
    <_>
      <internalNodes>
        0 -1 3597397 3.1140836654230952e-04</internalNodes>
      <leafValues>
        2.2606788575649261e-01 -6.9513362646102905e-01</leafValues></_>
    <_>
      <internalNodes>
        0 -1 235074 1.3226128183305264e-02</internalNodes>
      <leafValues>
        -3.6898308992385864e-01 5.1385718584060669e-01</leafValues></_>
    <_>
      <internalNodes>
        0 -1 3264285 -8.4119674284011126e-05</internalNodes>
      <leafValues>
        6.4118599891662598e-01 -3.3703067898750305e-01</leafValues></_>
    <_>
      <internalNodes>
        0 -1 15076513 -1.3628304004669189e-03</internalNodes>
      <leafValues>
        7.5863957405090332e-01 -2.3172706365585327e-01</leafValues></_></weakClassifiers></stage11>
</opencv_storage>
