<?xml version="1.0"?>
<opencv_storage>
<stage5>
  <maxWeakCount>7</maxWeakCount>
  <stageThreshold>-7.8252804279327393e-01</stageThreshold>
  <weakClassifiers>
    <_>
      <internalNodes>
        0 -1 11645846 -3.3809700980782509e-03</internalNodes>
      <leafValues>
        7.2972971200942993e-01 -5.7783639430999756e-01</leafValues></_>
    <_>
      <internalNodes>
        0 -1 6081991 7.4846879579126835e-03</internalNodes>
      <leafValues>
        -5.1060301065444946e-01 3.2610878348350525e-01</leafValues></_>
    <_>
      <internalNodes>
        0 -1 10405502 -4.8149332404136658e-02</internalNodes>
      <leafValues>
        -1. 2.0805339515209198e-01</leafValues></_>
    <_>
      <internalNodes>
        0 -1 11591125 -1.3452734565362334e-03</internalNodes>
      <leafValues>
        -7.0857661962509155e-01 2.0161955058574677e-01</leafValues></_>
    <_>
      <internalNodes>
        0 -1 6555959 5.9089511632919312e-02</internalNodes>
      <leafValues>
        1.8301771581172943e-01 -9.3120294809341431e-01</leafValues></_>
    <_>
      <internalNodes>
        0 -1 515606 7.8067956492304802e-03</internalNodes>
      <leafValues>
        -3.8197609782218933e-01 4.5574620366096497e-01</leafValues></_>
    <_>
      <internalNodes>
        0 -1 15432604 -4.8833440814632922e-05</internalNodes>
      <leafValues>
        -6.6904109716415405e-01 2.7326136827468872e-01</leafValues></_></weakClassifiers></stage5>
</opencv_storage>
